digraph Tree {
node [shape=box] ;
0 [label="petal length (cm) <= 2.6\ngini = 0.666\nsamples = 112\nvalue = [37, 39, 36]"] ;
1 [label="gini = 0.0\nsamples = 37\nvalue = [37, 0, 0]"] ;
0 -> 1 [labeldistance=2.5, labelangle=45, headlabel="True"] ;
2 [label="petal width (cm) <= 1.75\ngini = 0.499\nsamples = 75\nvalue = [0, 39, 36]"] ;
0 -> 2 [labeldistance=2.5, labelangle=-45, headlabel="False"] ;
3 [label="petal length (cm) <= 4.95\ngini = 0.136\nsamples = 41\nvalue = [0, 38, 3]"] ;
2 -> 3 ;
4 [label="gini = 0.0\nsamples = 36\nvalue = [0, 36, 0]"] ;
3 -> 4 ;
5 [label="petal width (cm) <= 1.55\ngini = 0.48\nsamples = 5\nvalue = [0, 2, 3]"] ;
3 -> 5 ;
6 [label="gini = 0.0\nsamples = 2\nvalue = [0, 0, 2]"] ;
5 -> 6 ;
7 [label="sepal length (cm) <= 6.95\ngini = 0.444\nsamples = 3\nvalue = [0, 2, 1]"] ;
5 -> 7 ;
8 [label="gini = 0.0\nsamples = 2\nvalue = [0, 2, 0]"] ;
7 -> 8 ;
9 [label="gini = 0.0\nsamples = 1\nvalue = [0, 0, 1]"] ;
7 -> 9 ;
10 [label="petal length (cm) <= 4.85\ngini = 0.057\nsamples = 34\nvalue = [0, 1, 33]"] ;
2 -> 10 ;
11 [label="sepal length (cm) <= 5.95\ngini = 0.444\nsamples = 3\nvalue = [0, 1, 2]"] ;
10 -> 11 ;
12 [label="gini = 0.0\nsamples = 1\nvalue = [0, 1, 0]"] ;
11 -> 12 ;
13 [label="gini = 0.0\nsamples = 2\nvalue = [0, 0, 2]"] ;
11 -> 13 ;
14 [label="gini = 0.0\nsamples = 31\nvalue = [0, 0, 31]"] ;
10 -> 14 ;
}